<?xml version="1.0"?>
<opencv_storage>
<cascade>
  <stageType>BOOST</stageType>
  <featureType>HAAR</featureType>
  <height>24</height>
  <width>24</width>
  <stageParams>
    <boostType>GAB</boostType>
    <minHitRate>9.9500000476837158e-01</minHitRate>
    <maxFalseAlarm>5.0000000000000000e-01</maxFalseAlarm>
    <weightTrimRate>9.4999999999999996e-01</weightTrimRate>
    <maxDepth>1</maxDepth>
    <maxWeakCount>100</maxWeakCount></stageParams>
  <featureParams>
    <maxCatCount>0</maxCatCount>
    <featSize>1</featSize>
    <mode>BASIC</mode></featureParams>
  <stageNum>13</stageNum>
  <stages>
    <!-- stage 0 -->
    <_>
      <maxWeakCount>3</maxWeakCount>
      <stageThreshold>-9.5630818605422974e-01</stageThreshold>
      <weakClassifiers>
        <_>
          <internalNodes>
            0 -1 42 -1.9073020666837692e-02</internalNodes>
          <leafValues>
            8.5180008411407471e-01 -7.6840490102767944e-01</leafValues></_>
        <_>
          <internalNodes>
            0 -1 59 1.1325301602482796e-02</internalNodes>
          <leafValues>
            -8.3909529447555542e-01 6.6768223047256470e-01</leafValues></_>
        <_>
          <internalNodes>
            0 -1 25 1.9100674986839294e-01</internalNodes>
          <leafValues>
            -7.1373885869979858e-01 6.5119200944900513e-01</leafValues></_></weakClassifiers></_>
    <!-- stage 1 -->
    <_>
      <maxWeakCount>4</maxWeakCount>
      <stageThreshold>-1.3140918016433716e+00</stageThreshold>
      <weakClassifiers>
        <_>
          <internalNodes>
            0 -1 108 6.4634890295565128e-03</internalNodes>
          <leafValues>
            -7.8595644235610962e-01 7.1715879440307617e-01</leafValues></_>
        <_>
          <internalNodes>
            0 -1 2 6.3301116228103638e-02</internalNodes>
          <leafValues>
            -5.9027469158172607e-01 7.9741746187210083e-01</leafValues></_>
        <_>
          <internalNodes>
            0 -1 60 5.9785186313092709e-03</internalNodes>
          <leafValues>
            -7.2109889984130859e-01 5.6336832046508789e-01</leafValues></_>
        <_>
          <internalNodes>
            0 -1 33 -1.8728882074356079e-02</internalNodes>
          <leafValues>
            5.2163684368133545e-01 -6.0445386171340942e-01</leafValues></_></weakClassifiers></_>
    <!-- stage 2 -->
    <_>
      <maxWeakCount>5</maxWeakCount>
      <stageThreshold>-1.0404802560806274e+00</stageThreshold>
      <weakClassifiers>
        <_>
          <internalNodes>
            0 -1 58 1.5553302131593227e-02</internalNodes>
          <leafValues>
            -7.2941178083419800e-01 6.9284576177597046e-01</leafValues></_>
        <_>
          <internalNodes>
            0 -1 44 6.8704504519701004e-03</internalNodes>
          <leafValues>
            -7.8067934513092041e-01 5.0744956731796265e-01</leafValues></_>
        <_>
          <internalNodes>
            0 -1 22 -1.1759958416223526e-01</internalNodes>
          <leafValues>
            5.4131788015365601e-01 -7.0179128646850586e-01</leafValues></_>
        <_>
          <internalNodes>
            0 -1 11 5.1833212375640869e-02</internalNodes>
          <leafValues>
            -5.4056489467620850e-01 6.7188799381256104e-01</leafValues></_>
        <_>
          <internalNodes>
            0 -1 95 -1.1954281479120255e-02</internalNodes>
          <leafValues>
            4.2383813858032227e-01 -6.1065304279327393e-01</leafValues></_></weakClassifiers></_>
    <!-- stage 3 -->
    <_>
      <maxWeakCount>7</maxWeakCount>
      <stageThreshold>-9.6625661849975586e-01</stageThreshold>
      <weakClassifiers>
        <_>
          <internalNodes>
            0 -1 62 1.6823663609102368e-03</internalNodes>
          <leafValues>
            -6.5838509798049927e-01 6.4738982915878296e-01</leafValues></_>
        <_>
          <internalNodes>
            0 -1 117 -4.5428805053234100e-02</internalNodes>
          <leafValues>
            6.9797903299331665e-01 -4.4138455390930176e-01</leafValues></_>
        <_>
          <internalNodes>
            0 -1 36 6.9608823396265507e-03</internalNodes>
          <leafValues>
            -6.8289786577224731e-01 4.7213494777679443e-01</leafValues></_>
        <_>
          <internalNodes>
            0 -1 10 3.3574748784303665e-02</internalNodes>
          <leafValues>
            -5.0392454862594604e-01 6.0996431112289429e-01</leafValues></_>
        <_>
          <internalNodes>
            0 -1 100 9.1670723631978035e-03</internalNodes>
          <leafValues>
            -4.9633860588073730e-01 5.0479710102081299e-01</leafValues></_>
        <_>
          <internalNodes>
            0 -1 123 1.1173491366207600e-03</internalNodes>
          <leafValues>
            -8.3862113952636719e-01 2.3230844736099243e-01</leafValues></_>
        <_>
          <internalNodes>
            0 -1 23 -1.1964010074734688e-02</internalNodes>
          <leafValues>
            4.2933276295661926e-01 -4.8978403210639954e-01</leafValues></_></weakClassifiers></_>
    <!-- stage 4 -->
    <_>
      <maxWeakCount>7</maxWeakCount>
      <stageThreshold>-1.4977620840072632e+00</stageThreshold>
      <weakClassifiers>
        <_>
          <internalNodes>
            0 -1 3 1.0060259699821472e-01</internalNodes>
          <leafValues>
            -2.3060168325901031e-01 7.9815334081649780e-01</leafValues></_>
        <_>
          <internalNodes>
            0 -1 42 -3.0448881909251213e-02</internalNodes>
          <leafValues>
            4.8934441804885864e-01 -6.4111989736557007e-01</leafValues></_>
        <_>
          <internalNodes>
            0 -1 89 -2.8231388423591852e-03</internalNodes>
          <leafValues>
            3.7114354968070984e-01 -7.7368175983428955e-01</leafValues></_>
        <_>
          <internalNodes>
            0 -1 26 -1.5270707011222839e-01</internalNodes>
          <leafValues>
            4.3186688423156738e-01 -5.6756550073623657e-01</leafValues></_>
        <_>
          <internalNodes>
            0 -1 120 -6.5526694059371948e-02</internalNodes>
          <leafValues>
            6.3894748687744141e-01 -3.3639729022979736e-01</leafValues></_>
        <_>
          <internalNodes>
            0 -1 27 -1.1354368180036545e-02</internalNodes>
          <leafValues>
            3.9670014381408691e-01 -5.3525811433792114e-01</leafValues></_>
        <_>
          <internalNodes>
            0 -1 53 4.8113791272044182e-03</internalNodes>
          <leafValues>
            -6.8842750787734985e-01 2.6708447933197021e-01</leafValues></_></weakClassifiers></_>
    <!-- stage 5 -->
    <_>
      <maxWeakCount>9</maxWeakCount>
      <stageThreshold>-1.1751389503479004e+00</stageThreshold>
      <weakClassifiers>
        <_>
          <internalNodes>
            0 -1 48 2.6888446882367134e-02</internalNodes>
          <leafValues>
            -6.5271705389022827e-01 5.8181005716323853e-01</leafValues></_>
        <_>
          <internalNodes>
            0 -1 9 1.1697020381689072e-01</internalNodes>
          <leafValues>
            -3.8953217864036560e-01 6.4403879642486572e-01</leafValues></_>
        <_>
          <internalNodes>
            0 -1 99 4.3931836262345314e-03</internalNodes>
          <leafValues>
            -5.2620446681976318e-01 4.4920206069946289e-01</leafValues></_>
        <_>
          <internalNodes>
            0 -1 54 -4.2509984225034714e-02</internalNodes>
          <leafValues>
            7.2707682847976685e-01 -2.9928565025329590e-01</leafValues></_>
        <_>
          <internalNodes>
            0 -1 110 7.7924793586134911e-03</internalNodes>
          <leafValues>
            -6.7523050308227539e-01 2.7382057905197144e-01</leafValues></_>
        <_>
          <internalNodes>
            0 -1 41 -6.5874634310603142e-03</internalNodes>
          <leafValues>
            2.3520985245704651e-01 -6.5016025304794312e-01</leafValues></_>
        <_>
          <internalNodes>
            0 -1 118 -4.6420838683843613e-02</internalNodes>
          <leafValues>
            4.8049619793891907e-01 -3.9655867218971252e-01</leafValues></_>
        <_>
          <internalNodes>
            0 -1 97 1.5262570232152939e-02</internalNodes>
          <leafValues>
            -4.5575138926506042e-01 3.0873769521713257e-01</leafValues></_>
        <_>
          <internalNodes>
            0 -1 63 -3.6400961689651012e-03</internalNodes>
          <leafValues>
            1.9518624246120453e-01 -6.2357884645462036e-01</leafValues></_></weakClassifiers></_>
    <!-- stage 6 -->
    <_>
      <maxWeakCount>12</maxWeakCount>
      <stageThreshold>-1.1404715776443481e+00</stageThreshold>
      <weakClassifiers>
        <_>
          <internalNodes>
            0 -1 4 1.0782732069492340e-01</internalNodes>
          <leafValues>
            -2.1822236478328705e-01 6.8483912944793701e-01</leafValues></_>
        <_>
          <internalNodes>
            0 -1 70 4.1729207150638103e-03</internalNodes>
          <leafValues>
            -7.1190971136093140e-01 3.5309660434722900e-01</leafValues></_>
        <_>
          <internalNodes>
            0 -1 109 7.6292413286864758e-03</internalNodes>
          <leafValues>
            -6.4060485363006592e-01 3.1717106699943542e-01</leafValues></_>
        <_>
          <internalNodes>
            0 -1 98 -3.8107119500637054e-02</internalNodes>
          <leafValues>
            4.6081313490867615e-01 -4.1945075988769531e-01</leafValues></_>
        <_>
          <internalNodes>
            0 -1 18 -9.7044810652732849e-02</internalNodes>
          <leafValues>
            6.3244688510894775e-01 -2.6659992337226868e-01</leafValues></_>
        <_>
          <internalNodes>
            0 -1 39 1.5498498454689980e-02</internalNodes>
          <leafValues>
            -4.7301608324050903e-01 3.3584150671958923e-01</leafValues></_>
        <_>
          <internalNodes>
            0 -1 79 4.4977138750255108e-03</internalNodes>
          <leafValues>
            -6.1401951313018799e-01 2.3998209834098816e-01</leafValues></_>
        <_>
          <internalNodes>
            0 -1 43 1.3605139683932066e-03</internalNodes>
          <leafValues>
            -7.7478283643722534e-01 1.8251062929630280e-01</leafValues></_>
        <_>
          <internalNodes>
            0 -1 7 3.5997010767459869e-02</internalNodes>
          <leafValues>
            -2.8482112288475037e-01 5.4270225763320923e-01</leafValues></_>
        <_>
          <internalNodes>
            0 -1 32 -2.1161884069442749e-03</internalNodes>
          <leafValues>
            1.8777054548263550e-01 -7.2465568780899048e-01</leafValues></_>
        <_>
          <internalNodes>
            0 -1 106 -3.4408166538923979e-03</internalNodes>
          <leafValues>
            -7.9708892107009888e-01 1.3452646136283875e-01</leafValues></_>
        <_>
          <internalNodes>
            0 -1 78 1.6822002828121185e-02</internalNodes>
          <leafValues>
            -3.2829248905181885e-01 3.4318920969963074e-01</leafValues></_></weakClassifiers></_>
    <!-- stage 7 -->
    <_>
      <maxWeakCount>11</maxWeakCount>
      <stageThreshold>-1.2885538339614868e+00</stageThreshold>
      <weakClassifiers>
        <_>
          <internalNodes>
            0 -1 24 -8.7458863854408264e-03</internalNodes>
          <leafValues>
            5.9358996152877808e-01 -3.1752306222915649e-01</leafValues></_>
        <_>
          <internalNodes>
            0 -1 6 1.5593458712100983e-01</internalNodes>
          <leafValues>
            -3.2663372159004211e-01 5.4800289869308472e-01</leafValues></_>
        <_>
          <internalNodes>
            0 -1 101 9.1510042548179626e-03</internalNodes>
          <leafValues>
            -6.4669048786163330e-01 3.1952911615371704e-01</leafValues></_>
        <_>
          <internalNodes>
            0 -1 49 6.2271472997963428e-03</internalNodes>
          <leafValues>
            -8.2584345340728760e-01 2.1612612903118134e-01</leafValues></_>
        <_>
          <internalNodes>
            0 -1 112 -8.7213832885026932e-03</internalNodes>
          <leafValues>
            3.2634040713310242e-01 -4.5385670661926270e-01</leafValues></_>
        <_>
          <internalNodes>
            0 -1 115 -8.1659818533807993e-04</internalNodes>
          <leafValues>
            2.2938621044158936e-01 -5.6402540206909180e-01</leafValues></_>
        <_>
          <internalNodes>
            0 -1 119 -4.5425631105899811e-02</internalNodes>
          <leafValues>
            3.7060135602951050e-01 -3.3764287829399109e-01</leafValues></_>
        <_>
          <internalNodes>
            0 -1 46 5.8957946021109819e-04</internalNodes>
          <leafValues>
            -4.5297729969024658e-01 3.0865690112113953e-01</leafValues></_>
        <_>
          <internalNodes>
            0 -1 86 -4.7370148822665215e-03</internalNodes>
          <leafValues>
            1.7151397466659546e-01 -7.3562830686569214e-01</leafValues></_>
        <_>
          <internalNodes>
            0 -1 96 -1.9796069245785475e-03</internalNodes>
          <leafValues>
            -8.3210587501525879e-01 1.2621827423572540e-01</leafValues></_>
        <_>
          <internalNodes>
            0 -1 31 -1.2168535962700844e-02</internalNodes>
          <leafValues>
            3.7379610538482666e-01 -3.2389968633651733e-01</leafValues></_></weakClassifiers></_>
    <!-- stage 8 -->
    <_>
      <maxWeakCount>12</maxWeakCount>
      <stageThreshold>-1.2711510658264160e+00</stageThreshold>
      <weakClassifiers>
        <_>
          <internalNodes>
            0 -1 111 -4.1400402784347534e-02</internalNodes>
          <leafValues>
            5.7347673177719116e-01 -2.9653283953666687e-01</leafValues></_>
        <_>
          <internalNodes>
            0 -1 8 3.9808146655559540e-02</internalNodes>
          <leafValues>
            -3.6348584294319153e-01 4.6316730976104736e-01</leafValues></_>
        <_>
          <internalNodes>
            0 -1 87 -9.3369921669363976e-03</internalNodes>
          <leafValues>
            2.2697511315345764e-01 -7.7511197328567505e-01</leafValues></_>
        <_>
          <internalNodes>
            0 -1 62 3.0628333333879709e-03</internalNodes>
          <leafValues>
            -6.0254925489425659e-01 2.2977389395236969e-01</leafValues></_>
        <_>
          <internalNodes>
            0 -1 104 -1.1356388032436371e-01</internalNodes>
          <leafValues>
            4.6166506409645081e-01 -3.3978855609893799e-01</leafValues></_>
        <_>
          <internalNodes>
            0 -1 61 4.2001260444521904e-03</internalNodes>
          <leafValues>
            -7.3614639043807983e-01 2.0144157111644745e-01</leafValues></_>
        <_>
          <internalNodes>
            0 -1 94 1.2683460488915443e-02</internalNodes>
          <leafValues>
            -4.7621080279350281e-01 3.0324599146842957e-01</leafValues></_>
        <_>
          <internalNodes>
            0 -1 93 -7.8775058500468731e-04</internalNodes>
          <leafValues>
            1.8928328156471252e-01 -6.0740411281585693e-01</leafValues></_>
        <_>
          <internalNodes>
            0 -1 92 -2.6729716919362545e-03</internalNodes>
          <leafValues>
            -8.6807864904403687e-01 1.2574818730354309e-01</leafValues></_>
        <_>
          <internalNodes>
            0 -1 65 1.8145784735679626e-02</internalNodes>
          <leafValues>
            -2.8652226924896240e-01 4.1673097014427185e-01</leafValues></_>
        <_>
          <internalNodes>
            0 -1 69 -1.7355398740619421e-03</internalNodes>
          <leafValues>
            -7.3781722784042358e-01 1.5214197337627411e-01</leafValues></_>
        <_>
          <internalNodes>
            0 -1 105 -1.8774112686514854e-03</internalNodes>
          <leafValues>
            -5.7822692394256592e-01 1.7996858060359955e-01</leafValues></_></weakClassifiers></_>
    <!-- stage 9 -->
    <_>
      <maxWeakCount>14</maxWeakCount>
      <stageThreshold>-1.0483821630477905e+00</stageThreshold>
      <weakClassifiers>
        <_>
          <internalNodes>
            0 -1 88 2.7307420969009399e-03</internalNodes>
          <leafValues>
            5.0985431671142578e-01 -5.2710843086242676e-01</leafValues></_>
        <_>
          <internalNodes>
            0 -1 38 -2.3894796147942543e-02</internalNodes>
          <leafValues>
            5.0070065259933472e-01 -3.0992004275321960e-01</leafValues></_>
        <_>
          <internalNodes>
            0 -1 40 -1.0614705272018909e-02</internalNodes>
          <leafValues>
            2.2763176262378693e-01 -6.2372654676437378e-01</leafValues></_>
        <_>
          <internalNodes>
            0 -1 5 1.5222954750061035e-01</internalNodes>
          <leafValues>
            -3.7392908334732056e-01 4.0653952956199646e-01</leafValues></_>
        <_>
          <internalNodes>
            0 -1 84 1.4181689359247684e-02</internalNodes>
          <leafValues>
            -7.2978633642196655e-01 2.0285257697105408e-01</leafValues></_>
        <_>
          <internalNodes>
            0 -1 76 9.3653297517448664e-04</internalNodes>
          <leafValues>
            -6.3338893651962280e-01 1.7244501411914825e-01</leafValues></_>
        <_>
          <internalNodes>
            0 -1 121 -8.3348065614700317e-02</internalNodes>
          <leafValues>
            4.8338708281517029e-01 -2.5990542769432068e-01</leafValues></_>
        <_>
          <internalNodes>
            0 -1 29 -9.6033392474055290e-03</internalNodes>
          <leafValues>
            2.7016305923461914e-01 -4.6664097905158997e-01</leafValues></_>
        <_>
          <internalNodes>
            0 -1 124 -6.2128435820341110e-04</internalNodes>
          <leafValues>
            2.5871822237968445e-01 -4.0354025363922119e-01</leafValues></_>
        <_>
          <internalNodes>
            0 -1 64 -3.0781753594055772e-04</internalNodes>
          <leafValues>
            2.6047185063362122e-01 -3.7475866079330444e-01</leafValues></_>
        <_>
          <internalNodes>
            0 -1 55 -2.5217805523425341e-03</internalNodes>
          <leafValues>
            -7.5155055522918701e-01 1.5435245633125305e-01</leafValues></_>
        <_>
          <internalNodes>
            0 -1 73 -7.9389875754714012e-03</internalNodes>
          <leafValues>
            5.9138447046279907e-01 -1.8303781747817993e-01</leafValues></_>
        <_>
          <internalNodes>
            0 -1 116 1.7420705407857895e-03</internalNodes>
          <leafValues>
            1.3348327577114105e-01 -7.7014738321304321e-01</leafValues></_>
        <_>
          <internalNodes>
            0 -1 103 -4.9080867320299149e-03</internalNodes>
          <leafValues>
            3.4605145454406738e-01 -2.8093495965003967e-01</leafValues></_></weakClassifiers></_>
    <!-- stage 10 -->
    <_>
      <maxWeakCount>15</maxWeakCount>
      <stageThreshold>-1.1014471054077148e+00</stageThreshold>
      <weakClassifiers>
        <_>
          <internalNodes>
            0 -1 0 6.1821479350328445e-02</internalNodes>
          <leafValues>
            -1.1934426426887512e-01 6.1250001192092896e-01</leafValues></_>
        <_>
          <internalNodes>
            0 -1 82 -2.4540440645068884e-03</internalNodes>
          <leafValues>
            2.7412283420562744e-01 -6.1569398641586304e-01</leafValues></_>
        <_>
          <internalNodes>
            0 -1 67 -3.7110395729541779e-02</internalNodes>
          <leafValues>
            5.9047293663024902e-01 -2.5713446736335754e-01</leafValues></_>
        <_>
          <internalNodes>
            0 -1 34 7.9404760617762804e-04</internalNodes>
          <leafValues>
            -4.7416889667510986e-01 2.7732115983963013e-01</leafValues></_>
        <_>
          <internalNodes>
            0 -1 107 -1.6209643334150314e-02</internalNodes>
          <leafValues>
            3.2679313421249390e-01 -3.7766605615615845e-01</leafValues></_>
        <_>
          <internalNodes>
            0 -1 28 3.3436515368521214e-03</internalNodes>
          <leafValues>
            -5.5610060691833496e-01 2.0547924935817719e-01</leafValues></_>
        <_>
          <internalNodes>
            0 -1 71 -2.1641980856657028e-03</internalNodes>
          <leafValues>
            3.0402854084968567e-01 -3.2546621561050415e-01</leafValues></_>
        <_>
          <internalNodes>
            0 -1 122 1.2331188190728426e-03</internalNodes>
          <leafValues>
            -7.8402763605117798e-01 1.0724409669637680e-01</leafValues></_>
        <_>
          <internalNodes>
            0 -1 90 1.8191313371062279e-02</internalNodes>
          <leafValues>
            1.1431615054607391e-01 -7.9036128520965576e-01</leafValues></_>
        <_>
          <internalNodes>
            0 -1 77 1.4957878738641739e-03</internalNodes>
          <leafValues>
            -5.4858547449111938e-01 1.4892140030860901e-01</leafValues></_>
        <_>
          <internalNodes>
            0 -1 30 2.5610735639929771e-02</internalNodes>
          <leafValues>
            -6.1242437362670898e-01 1.5252839028835297e-01</leafValues></_>
        <_>
          <internalNodes>
            0 -1 113 1.0285431053489447e-03</internalNodes>
          <leafValues>
            -2.5003656744956970e-01 4.0888229012489319e-01</leafValues></_>
        <_>
          <internalNodes>
            0 -1 68 -5.7826249394565821e-04</internalNodes>
          <leafValues>
            -6.6619789600372314e-01 1.4518496394157410e-01</leafValues></_>
        <_>
          <internalNodes>
            0 -1 85 4.3477956205606461e-03</internalNodes>
          <leafValues>
            -1.8536694347858429e-01 5.3825831413269043e-01</leafValues></_>
        <_>
          <internalNodes>
            0 -1 72 -5.9556225314736366e-03</internalNodes>
          <leafValues>
            5.9063345193862915e-01 -1.8497583270072937e-01</leafValues></_></weakClassifiers></_>
    <!-- stage 11 -->
    <_>
      <maxWeakCount>16</maxWeakCount>
      <stageThreshold>-1.2021224498748779e+00</stageThreshold>
      <weakClassifiers>
        <_>
          <internalNodes>
            0 -1 12 2.3436456918716431e-02</internalNodes>
          <leafValues>
            -1.1989714205265045e-01 6.2138342857360840e-01</leafValues></_>
        <_>
          <internalNodes>
            0 -1 19 5.8901667216559872e-05</internalNodes>
          <leafValues>
            2.6990583539009094e-01 -5.9040206670761108e-01</leafValues></_>
        <_>
          <internalNodes>
            0 -1 81 1.5048945788294077e-03</internalNodes>
          <leafValues>
            -3.8866788148880005e-01 3.2292878627777100e-01</leafValues></_>
        <_>
          <internalNodes>
            0 -1 19 -8.9571898570284247e-05</internalNodes>
          <leafValues>
            -4.2529141902923584e-01 2.9284447431564331e-01</leafValues></_>
        <_>
          <internalNodes>
            0 -1 21 2.2046589292585850e-03</internalNodes>
          <leafValues>
            -4.1552379727363586e-01 2.6120707392692566e-01</leafValues></_>
        <_>
          <internalNodes>
            0 -1 102 1.2025933712720871e-02</internalNodes>
          <leafValues>
            -4.5123404264450073e-01 2.4251724779605865e-01</leafValues></_>
        <_>
          <internalNodes>
            0 -1 17 -2.1293468773365021e-02</internalNodes>
          <leafValues>
            1.8168349564075470e-01 -5.2026659250259399e-01</leafValues></_>
        <_>
          <internalNodes>
            0 -1 37 1.1995763052254915e-03</internalNodes>
          <leafValues>
            1.1441819369792938e-01 -7.2854340076446533e-01</leafValues></_>
        <_>
          <internalNodes>
            0 -1 83 3.3407898154109716e-03</internalNodes>
          <leafValues>
            -6.9957089424133301e-01 1.2738475203514099e-01</leafValues></_>
        <_>
          <internalNodes>
            0 -1 20 -2.7247078251093626e-03</internalNodes>
          <leafValues>
            -7.3507547378540039e-01 1.2110968679189682e-01</leafValues></_>
        <_>
          <internalNodes>
            0 -1 52 -3.4315222874283791e-03</internalNodes>
          <leafValues>
            3.6819231510162354e-01 -2.6981827616691589e-01</leafValues></_>
        <_>
          <internalNodes>
            0 -1 126 -2.4923436343669891e-02</internalNodes>
          <leafValues>
            3.8962823152542114e-01 -2.4708497524261475e-01</leafValues></_>
        <_>
          <internalNodes>
            0 -1 80 -1.2585399672389030e-03</internalNodes>
          <leafValues>
            -7.6176166534423828e-01 1.1797180026769638e-01</leafValues></_>
        <_>
          <internalNodes>
            0 -1 50 2.1320367231965065e-02</internalNodes>
          <leafValues>
            9.6531212329864502e-02 -7.6390808820724487e-01</leafValues></_>
        <_>
          <internalNodes>
            0 -1 35 1.9423577934503555e-02</internalNodes>
          <leafValues>
            1.2193468958139420e-01 -6.9852012395858765e-01</leafValues></_>
        <_>
          <internalNodes>
            0 -1 16 -4.6762160956859589e-02</internalNodes>
          <leafValues>
            -7.7682512998580933e-01 9.4142720103263855e-02</leafValues></_></weakClassifiers></_>
    <!-- stage 12 -->
    <_>
      <maxWeakCount>15</maxWeakCount>
      <stageThreshold>-9.2738950252532959e-01</stageThreshold>
      <weakClassifiers>
        <_>
          <internalNodes>
            0 -1 45 5.0400630570948124e-03</internalNodes>
          <leafValues>
            -4.5748987793922424e-01 4.8414376378059387e-01</leafValues></_>
        <_>
          <internalNodes>
            0 -1 1 1.0716146230697632e-01</internalNodes>
          <leafValues>
            -3.0924290418624878e-01 4.6067228913307190e-01</leafValues></_>
        <_>
          <internalNodes>
            0 -1 66 -3.8430579006671906e-02</internalNodes>
          <leafValues>
            6.1360216140747070e-01 -1.8612232804298401e-01</leafValues></_>
        <_>
          <internalNodes>
            0 -1 56 1.3806343078613281e-02</internalNodes>
          <leafValues>
            -4.9188545346260071e-01 2.2574821114540100e-01</leafValues></_>
        <_>
          <internalNodes>
            0 -1 114 -2.6663215830922127e-03</internalNodes>
          <leafValues>
            2.3224179446697235e-01 -5.0732624530792236e-01</leafValues></_>
        <_>
          <internalNodes>
            0 -1 47 -2.1400159312179312e-05</internalNodes>
          <leafValues>
            1.6154336929321289e-01 -5.3724747896194458e-01</leafValues></_>
        <_>
          <internalNodes>
            0 -1 74 -1.7184005118906498e-03</internalNodes>
          <leafValues>
            -7.4325352907180786e-01 1.2602804601192474e-01</leafValues></_>
        <_>
          <internalNodes>
            0 -1 91 2.7144234627485275e-04</internalNodes>
          <leafValues>
            1.9282059371471405e-01 -4.4736957550048828e-01</leafValues></_>
        <_>
          <internalNodes>
            0 -1 75 2.5956314057111740e-03</internalNodes>
          <leafValues>
            1.0198155045509338e-01 -7.0478773117065430e-01</leafValues></_>
        <_>
          <internalNodes>
            0 -1 51 -6.0768928378820419e-03</internalNodes>
          <leafValues>
            2.2012394666671753e-01 -4.1099408268928528e-01</leafValues></_>
        <_>
          <internalNodes>
            0 -1 125 7.4273039354011416e-04</internalNodes>
          <leafValues>
            -5.1103639602661133e-01 1.7512516677379608e-01</leafValues></_>
        <_>
          <internalNodes>
            0 -1 14 -1.4930152334272861e-02</internalNodes>
          <leafValues>
            -7.8256952762603760e-01 1.0838585346937180e-01</leafValues></_>
        <_>
          <internalNodes>
            0 -1 13 9.4429887831211090e-03</internalNodes>
          <leafValues>
            -2.0705083012580872e-01 4.3824547529220581e-01</leafValues></_>
        <_>
          <internalNodes>
            0 -1 15 5.0053047016263008e-03</internalNodes>
          <leafValues>
            1.7218241095542908e-01 -5.7253724336624146e-01</leafValues></_>
        <_>
          <internalNodes>
            0 -1 57 -2.0842244848608971e-03</internalNodes>
          <leafValues>
            -6.7646270990371704e-01 9.6523575484752655e-02</leafValues></_></weakClassifiers></_></stages>
  <features>
    <_>
      <rects>
        <_>
          0 0 8 13 -1.</_>
        <_>
          4 0 4 13 2.</_></rects>
      <tilted>0</tilted></_>
    <_>
      <rects>
        <_>
          0 0 8 15 -1.</_>
        <_>
          4 0 4 15 2.</_></rects>
      <tilted>0</tilted></_>
    <_>
      <rects>
        <_>
          0 0 8 17 -1.</_>
        <_>
          4 0 4 17 2.</_></rects>
      <tilted>0</tilted></_>
    <_>
      <rects>
        <_>
          0 0 8 23 -1.</_>
        <_>
          4 0 4 23 2.</_></rects>
      <tilted>0</tilted></_>
    <_>
      <rects>
        <_>
          0 0 10 22 -1.</_>
        <_>
          5 0 5 22 2.</_></rects>
      <tilted>0</tilted></_>
    <_>
      <rects>
        <_>
          0 0 10 24 -1.</_>
        <_>
          5 0 5 24 2.</_></rects>
      <tilted>0</tilted></_>
    <_>
      <rects>
        <_>
          0 1 10 19 -1.</_>
        <_>
          5 1 5 19 2.</_></rects>
      <tilted>0</tilted></_>
    <_>
      <rects>
        <_>
          0 2 4 18 -1.</_>
        <_>
          2 2 2 18 2.</_></rects>
      <tilted>0</tilted></_>
    <_>
      <rects>
        <_>
          0 2 6 12 -1.</_>
        <_>
          3 2 3 12 2.</_></rects>
      <tilted>0</tilted></_>
    <_>
      <rects>
        <_>
          0 2 8 20 -1.</_>
        <_>
          4 2 4 20 2.</_></rects>
      <tilted>0</tilted></_>
    <_>
      <rects>
        <_>
          0 2 12 3 -1.</_>
        <_>
          6 2 6 3 2.</_></rects>
      <tilted>0</tilted></_>
    <_>
      <rects>
        <_>
          0 2 24 2 -1.</_>
        <_>
          8 2 8 2 3.</_></rects>
      <tilted>0</tilted></_>
    <_>
      <rects>
        <_>
          0 3 12 2 -1.</_>
        <_>
          6 3 6 2 2.</_></rects>
      <tilted>0</tilted></_>
    <_>
      <rects>
        <_>
          0 4 2 13 -1.</_>
        <_>
          1 4 1 13 2.</_></rects>
      <tilted>0</tilted></_>
    <_>
      <rects>
        <_>
          0 5 5 6 -1.</_>
        <_>
          0 7 5 2 3.</_></rects>
      <tilted>0</tilted></_>
    <_>
      <rects>
        <_>
          0 5 6 6 -1.</_>
        <_>
          0 7 6 2 3.</_></rects>
      <tilted>0</tilted></_>
    <_>
      <rects>
        <_>
          0 7 22 8 -1.</_>
        <_>
          0 7 11 4 2.</_>
        <_>
          11 11 11 4 2.</_></rects>
      <tilted>0</tilted></_>
    <_>
      <rects>
        <_>
          0 12 8 12 -1.</_>
        <_>
          0 18 8 6 2.</_></rects>
      <tilted>0</tilted></_>
    <_>
      <rects>
        <_>
          0 18 24 6 -1.</_>
        <_>
          0 21 24 3 2.</_></rects>
      <tilted>0</tilted></_>
    <_>
      <rects>
        <_>
          0 22 1 2 -1.</_>
        <_>
          0 23 1 1 2.</_></rects>
      <tilted>0</tilted></_>
    <_>
      <rects>
        <_>
          1 1 7 2 -1.</_>
        <_>
          1 2 7 1 2.</_></rects>
      <tilted>0</tilted></_>
    <_>
      <rects>
        <_>
          1 8 8 2 -1.</_>
        <_>
          1 8 4 1 2.</_>
        <_>
          5 9 4 1 2.</_></rects>
      <tilted>0</tilted></_>
    <_>
      <rects>
        <_>
          1 10 22 14 -1.</_>
        <_>
          1 17 22 7 2.</_></rects>
      <tilted>0</tilted></_>
    <_>
      <rects>
        <_>
          1 18 8 6 -1.</_>
        <_>
          1 21 8 3 2.</_></rects>
      <tilted>0</tilted></_>
    <_>
      <rects>
        <_>
          2 3 10 6 -1.</_>
        <_>
          2 3 5 3 2.</_>
        <_>
          7 6 5 3 2.</_></rects>
      <tilted>0</tilted></_>
    <_>
      <rects>
        <_>
          2 3 22 21 -1.</_>
        <_>
          2 10 22 7 3.</_></rects>
      <tilted>0</tilted></_>
    <_>
      <rects>
        <_>
          2 10 22 14 -1.</_>
        <_>
          2 17 22 7 2.</_></rects>
      <tilted>0</tilted></_>
    <_>
      <rects>
        <_>
          3 1 8 8 -1.</_>
        <_>
          3 1 4 4 2.</_>
        <_>
          7 5 4 4 2.</_></rects>
      <tilted>0</tilted></_>
    <_>
      <rects>
        <_>
          3 8 11 2 -1.</_>
        <_>
          3 9 11 1 2.</_></rects>
      <tilted>0</tilted></_>
    <_>
      <rects>
        <_>
          4 0 6 10 -1.</_>
        <_>
          4 0 3 5 2.</_>
        <_>
          7 5 3 5 2.</_></rects>
      <tilted>0</tilted></_>
    <_>
      <rects>
        <_>
          4 5 8 18 -1.</_>
        <_>
          4 11 8 6 3.</_></rects>
      <tilted>0</tilted></_>
    <_>
      <rects>
        <_>
          4 6 16 3 -1.</_>
        <_>
          4 7 16 1 3.</_></rects>
      <tilted>0</tilted></_>
    <_>
      <rects>
        <_>
          4 10 10 10 -1.</_>
        <_>
          4 15 10 5 2.</_></rects>
      <tilted>0</tilted></_>
    <_>
      <rects>
        <_>
          5 5 11 6 -1.</_>
        <_>
          5 7 11 2 3.</_></rects>
      <tilted>0</tilted></_>
    <_>
      <rects>
        <_>
          5 7 2 8 -1.</_>
        <_>
          5 7 1 4 2.</_>
        <_>
          6 11 1 4 2.</_></rects>
      <tilted>0</tilted></_>
    <_>
      <rects>
        <_>
          5 8 14 8 -1.</_>
        <_>
          5 8 7 4 2.</_>
        <_>
          12 12 7 4 2.</_></rects>
      <tilted>0</tilted></_>
    <_>
      <rects>
        <_>
          5 8 16 2 -1.</_>
        <_>
          5 9 16 1 2.</_></rects>
      <tilted>0</tilted></_>
    <_>
      <rects>
        <_>
          5 14 3 3 -1.</_>
        <_>
          5 15 3 1 3.</_></rects>
      <tilted>0</tilted></_>
    <_>
      <rects>
        <_>
          5 16 4 8 -1.</_>
        <_>
          5 20 4 4 2.</_></rects>
      <tilted>0</tilted></_>
    <_>
      <rects>
        <_>
          6 0 6 9 -1.</_>
        <_>
          6 3 6 3 3.</_></rects>
      <tilted>0</tilted></_>
    <_>
      <rects>
        <_>
          6 4 3 9 -1.</_>
        <_>
          6 7 3 3 3.</_></rects>
      <tilted>0</tilted></_>
    <_>
      <rects>
        <_>
          6 5 3 6 -1.</_>
        <_>
          6 7 3 2 3.</_></rects>
      <tilted>0</tilted></_>
    <_>
      <rects>
        <_>
          6 5 13 6 -1.</_>
        <_>
          6 7 13 2 3.</_></rects>
      <tilted>0</tilted></_>
    <_>
      <rects>
        <_>
          6 6 1 8 -1.</_>
        <_>
          6 10 1 4 2.</_></rects>
      <tilted>0</tilted></_>
    <_>
      <rects>
        <_>
          6 7 3 6 -1.</_>
        <_>
          6 10 3 3 2.</_></rects>
      <tilted>0</tilted></_>
    <_>
      <rects>
        <_>
          6 7 8 2 -1.</_>
        <_>
          10 7 4 2 2.</_></rects>
      <tilted>0</tilted></_>
    <_>
      <rects>
        <_>
          6 8 1 2 -1.</_>
        <_>
          6 9 1 1 2.</_></rects>
      <tilted>0</tilted></_>
    <_>
      <rects>
        <_>
          6 13 2 2 -1.</_>
        <_>
          6 14 2 1 2.</_></rects>
      <tilted>0</tilted></_>
    <_>
      <rects>
        <_>
          7 2 12 8 -1.</_>
        <_>
          11 2 4 8 3.</_></rects>
      <tilted>0</tilted></_>
    <_>
      <rects>
        <_>
          7 4 6 6 -1.</_>
        <_>
          10 4 3 6 2.</_></rects>
      <tilted>0</tilted></_>
    <_>
      <rects>
        <_>
          7 4 12 6 -1.</_>
        <_>
          7 4 6 3 2.</_>
        <_>
          13 7 6 3 2.</_></rects>
      <tilted>0</tilted></_>
    <_>
      <rects>
        <_>
          7 5 6 14 -1.</_>
        <_>
          9 5 2 14 3.</_></rects>
      <tilted>0</tilted></_>
    <_>
      <rects>
        <_>
          7 6 2 3 -1.</_>
        <_>
          7 7 2 1 3.</_></rects>
      <tilted>0</tilted></_>
    <_>
      <rects>
        <_>
          7 8 2 9 -1.</_>
        <_>
          7 11 2 3 3.</_></rects>
      <tilted>0</tilted></_>
    <_>
      <rects>
        <_>
          7 20 17 4 -1.</_>
        <_>
          7 22 17 2 2.</_></rects>
      <tilted>0</tilted></_>
    <_>
      <rects>
        <_>
          8 0 3 5 -1.</_>
        <_>
          9 0 1 5 3.</_></rects>
      <tilted>0</tilted></_>
    <_>
      <rects>
        <_>
          8 1 16 6 -1.</_>
        <_>
          8 3 16 2 3.</_></rects>
      <tilted>0</tilted></_>
    <_>
      <rects>
        <_>
          8 3 2 9 -1.</_>
        <_>
          9 3 1 9 2.</_></rects>
      <tilted>0</tilted></_>
    <_>
      <rects>
        <_>
          8 4 9 5 -1.</_>
        <_>
          11 4 3 5 3.</_></rects>
      <tilted>0</tilted></_>
    <_>
      <rects>
        <_>
          8 5 9 4 -1.</_>
        <_>
          11 5 3 4 3.</_></rects>
      <tilted>0</tilted></_>
    <_>
      <rects>
        <_>
          8 6 6 3 -1.</_>
        <_>
          11 6 3 3 2.</_></rects>
      <tilted>0</tilted></_>
    <_>
      <rects>
        <_>
          8 7 2 9 -1.</_>
        <_>
          8 10 2 3 3.</_></rects>
      <tilted>0</tilted></_>
    <_>
      <rects>
        <_>
          8 7 6 1 -1.</_>
        <_>
          11 7 3 1 2.</_></rects>
      <tilted>0</tilted></_>
    <_>
      <rects>
        <_>
          8 9 7 10 -1.</_>
        <_>
          8 14 7 5 2.</_></rects>
      <tilted>0</tilted></_>
    <_>
      <rects>
        <_>
          8 12 2 2 -1.</_>
        <_>
          9 12 1 2 2.</_></rects>
      <tilted>0</tilted></_>
    <_>
      <rects>
        <_>
          8 18 9 6 -1.</_>
        <_>
          8 20 9 2 3.</_></rects>
      <tilted>0</tilted></_>
    <_>
      <rects>
        <_>
          8 20 8 4 -1.</_>
        <_>
          8 22 8 2 2.</_></rects>
      <tilted>0</tilted></_>
    <_>
      <rects>
        <_>
          8 20 10 4 -1.</_>
        <_>
          8 22 10 2 2.</_></rects>
      <tilted>0</tilted></_>
    <_>
      <rects>
        <_>
          9 0 3 1 -1.</_>
        <_>
          10 0 1 1 3.</_></rects>
      <tilted>0</tilted></_>
    <_>
      <rects>
        <_>
          9 1 3 4 -1.</_>
        <_>
          10 1 1 4 3.</_></rects>
      <tilted>0</tilted></_>
    <_>
      <rects>
        <_>
          9 5 4 4 -1.</_>
        <_>
          11 5 2 4 2.</_></rects>
      <tilted>0</tilted></_>
    <_>
      <rects>
        <_>
          9 6 3 13 -1.</_>
        <_>
          10 6 1 13 3.</_></rects>
      <tilted>0</tilted></_>
    <_>
      <rects>
        <_>
          9 16 7 3 -1.</_>
        <_>
          9 17 7 1 3.</_></rects>
      <tilted>0</tilted></_>
    <_>
      <rects>
        <_>
          9 17 7 3 -1.</_>
        <_>
          9 18 7 1 3.</_></rects>
      <tilted>0</tilted></_>
    <_>
      <rects>
        <_>
          10 0 3 4 -1.</_>
        <_>
          11 0 1 4 3.</_></rects>
      <tilted>0</tilted></_>
    <_>
      <rects>
        <_>
          10 0 3 5 -1.</_>
        <_>
          11 0 1 5 3.</_></rects>
      <tilted>0</tilted></_>
    <_>
      <rects>
        <_>
          10 0 2 9 -1.</_>
        <_>
          11 0 1 9 2.</_></rects>
      <tilted>0</tilted></_>
    <_>
      <rects>
        <_>
          10 3 14 6 -1.</_>
        <_>
          10 3 7 3 2.</_>
        <_>
          17 6 7 3 2.</_></rects>
      <tilted>0</tilted></_>
    <_>
      <rects>
        <_>
          10 7 6 7 -1.</_>
        <_>
          12 7 2 7 3.</_></rects>
      <tilted>0</tilted></_>
    <_>
      <rects>
        <_>
          10 7 8 8 -1.</_>
        <_>
          10 7 4 4 2.</_>
        <_>
          14 11 4 4 2.</_></rects>
      <tilted>0</tilted></_>
    <_>
      <rects>
        <_>
          10 9 4 2 -1.</_>
        <_>
          10 10 4 1 2.</_></rects>
      <tilted>0</tilted></_>
    <_>
      <rects>
        <_>
          11 7 3 2 -1.</_>
        <_>
          12 7 1 2 3.</_></rects>
      <tilted>0</tilted></_>
    <_>
      <rects>
        <_>
          11 7 6 1 -1.</_>
        <_>
          14 7 3 1 2.</_></rects>
      <tilted>0</tilted></_>
    <_>
      <rects>
        <_>
          11 7 8 8 -1.</_>
        <_>
          11 7 4 4 2.</_>
        <_>
          15 11 4 4 2.</_></rects>
      <tilted>0</tilted></_>
    <_>
      <rects>
        <_>
          11 7 13 6 -1.</_>
        <_>
          11 10 13 3 2.</_></rects>
      <tilted>0</tilted></_>
    <_>
      <rects>
        <_>
          11 16 4 3 -1.</_>
        <_>
          11 17 4 1 3.</_></rects>
      <tilted>0</tilted></_>
    <_>
      <rects>
        <_>
          12 5 6 5 -1.</_>
        <_>
          15 5 3 5 2.</_></rects>
      <tilted>0</tilted></_>
    <_>
      <rects>
        <_>
          12 5 7 6 -1.</_>
        <_>
          12 7 7 2 3.</_></rects>
      <tilted>0</tilted></_>
    <_>
      <rects>
        <_>
          12 6 1 10 -1.</_>
        <_>
          12 11 1 5 2.</_></rects>
      <tilted>0</tilted></_>
    <_>
      <rects>
        <_>
          12 6 4 3 -1.</_>
        <_>
          14 6 2 3 2.</_></rects>
      <tilted>0</tilted></_>
    <_>
      <rects>
        <_>
          12 6 4 14 -1.</_>
        <_>
          12 13 4 7 2.</_></rects>
      <tilted>0</tilted></_>
    <_>
      <rects>
        <_>
          12 23 12 1 -1.</_>
        <_>
          18 23 6 1 2.</_></rects>
      <tilted>0</tilted></_>
    <_>
      <rects>
        <_>
          13 0 3 6 -1.</_>
        <_>
          14 0 1 6 3.</_></rects>
      <tilted>0</tilted></_>
    <_>
      <rects>
        <_>
          13 1 2 8 -1.</_>
        <_>
          14 1 1 8 2.</_></rects>
      <tilted>0</tilted></_>
    <_>
      <rects>
        <_>
          13 2 10 6 -1.</_>
        <_>
          13 2 5 3 2.</_>
        <_>
          18 5 5 3 2.</_></rects>
      <tilted>0</tilted></_>
    <_>
      <rects>
        <_>
          13 5 6 6 -1.</_>
        <_>
          13 7 6 2 3.</_></rects>
      <tilted>0</tilted></_>
    <_>
      <rects>
        <_>
          14 0 3 4 -1.</_>
        <_>
          15 0 1 4 3.</_></rects>
      <tilted>0</tilted></_>
    <_>
      <rects>
        <_>
          14 0 8 10 -1.</_>
        <_>
          14 0 4 5 2.</_>
        <_>
          18 5 4 5 2.</_></rects>
      <tilted>0</tilted></_>
    <_>
      <rects>
        <_>
          14 0 10 5 -1.</_>
        <_>
          19 0 5 5 2.</_></rects>
      <tilted>0</tilted></_>
    <_>
      <rects>
        <_>
          14 1 3 6 -1.</_>
        <_>
          14 3 3 2 3.</_></rects>
      <tilted>0</tilted></_>
    <_>
      <rects>
        <_>
          14 2 8 6 -1.</_>
        <_>
          14 2 4 3 2.</_>
        <_>
          18 5 4 3 2.</_></rects>
      <tilted>0</tilted></_>
    <_>
      <rects>
        <_>
          14 7 5 4 -1.</_>
        <_>
          14 9 5 2 2.</_></rects>
      <tilted>0</tilted></_>
    <_>
      <rects>
        <_>
          15 0 6 10 -1.</_>
        <_>
          15 0 3 5 2.</_>
        <_>
          18 5 3 5 2.</_></rects>
      <tilted>0</tilted></_>
    <_>
      <rects>
        <_>
          15 6 4 3 -1.</_>
        <_>
          15 7 4 1 3.</_></rects>
      <tilted>0</tilted></_>
    <_>
      <rects>
        <_>
          16 0 8 24 -1.</_>
        <_>
          20 0 4 24 2.</_></rects>
      <tilted>0</tilted></_>
    <_>
      <rects>
        <_>
          16 0 5 4 -1.</_>
        <_>
          16 2 5 2 2.</_></rects>
      <tilted>0</tilted></_>
    <_>
      <rects>
        <_>
          16 1 3 6 -1.</_>
        <_>
          17 1 1 6 3.</_></rects>
      <tilted>0</tilted></_>
    <_>
      <rects>
        <_>
          16 2 8 3 -1.</_>
        <_>
          20 2 4 3 2.</_></rects>
      <tilted>0</tilted></_>
    <_>
      <rects>
        <_>
          16 7 3 6 -1.</_>
        <_>
          16 10 3 3 2.</_></rects>
      <tilted>0</tilted></_>
    <_>
      <rects>
        <_>
          16 7 4 4 -1.</_>
        <_>
          16 9 4 2 2.</_></rects>
      <tilted>0</tilted></_>
    <_>
      <rects>
        <_>
          16 8 3 9 -1.</_>
        <_>
          16 11 3 3 3.</_></rects>
      <tilted>0</tilted></_>
    <_>
      <rects>
        <_>
          16 10 8 14 -1.</_>
        <_>
          16 17 8 7 2.</_></rects>
      <tilted>0</tilted></_>
    <_>
      <rects>
        <_>
          16 18 4 6 -1.</_>
        <_>
          16 21 4 3 2.</_></rects>
      <tilted>0</tilted></_>
    <_>
      <rects>
        <_>
          17 5 1 3 -1.</_>
        <_>
          17 6 1 1 3.</_></rects>
      <tilted>0</tilted></_>
    <_>
      <rects>
        <_>
          17 7 4 8 -1.</_>
        <_>
          17 7 2 4 2.</_>
        <_>
          19 11 2 4 2.</_></rects>
      <tilted>0</tilted></_>
    <_>
      <rects>
        <_>
          17 8 4 6 -1.</_>
        <_>
          17 8 2 3 2.</_>
        <_>
          19 11 2 3 2.</_></rects>
      <tilted>0</tilted></_>
    <_>
      <rects>
        <_>
          17 14 3 3 -1.</_>
        <_>
          17 15 3 1 3.</_></rects>
      <tilted>0</tilted></_>
    <_>
      <rects>
        <_>
          18 0 6 17 -1.</_>
        <_>
          21 0 3 17 2.</_></rects>
      <tilted>0</tilted></_>
    <_>
      <rects>
        <_>
          18 0 6 21 -1.</_>
        <_>
          21 0 3 21 2.</_></rects>
      <tilted>0</tilted></_>
    <_>
      <rects>
        <_>
          18 1 6 13 -1.</_>
        <_>
          21 1 3 13 2.</_></rects>
      <tilted>0</tilted></_>
    <_>
      <rects>
        <_>
          18 2 6 18 -1.</_>
        <_>
          21 2 3 18 2.</_></rects>
      <tilted>0</tilted></_>
    <_>
      <rects>
        <_>
          18 3 6 19 -1.</_>
        <_>
          21 3 3 19 2.</_></rects>
      <tilted>0</tilted></_>
    <_>
      <rects>
        <_>
          18 5 1 10 -1.</_>
        <_>
          18 10 1 5 2.</_></rects>
      <tilted>0</tilted></_>
    <_>
      <rects>
        <_>
          18 7 1 6 -1.</_>
        <_>
          18 10 1 3 2.</_></rects>
      <tilted>0</tilted></_>
    <_>
      <rects>
        <_>
          18 8 4 2 -1.</_>
        <_>
          18 8 2 1 2.</_>
        <_>
          20 9 2 1 2.</_></rects>
      <tilted>0</tilted></_>
    <_>
      <rects>
        <_>
          18 8 4 2 -1.</_>
        <_>
          18 9 4 1 2.</_></rects>
      <tilted>0</tilted></_>
    <_>
      <rects>
        <_>
          20 3 4 12 -1.</_>
        <_>
          22 3 2 12 2.</_></rects>
      <tilted>0</tilted></_></features></cascade>
</opencv_storage>
